{"Gradients/down1.maxpool_conv.1.double_conv.3.weight":{"_type":"histogram","values":[2,0,4,0,5,6,2,8,4,12,18,18,21,43,53,65,86,107,179,224,390,610,952,1727,3084,7231,12373,4399,2077,1163,650,448,282,153,128,86,55,29,24,18,11,14,10,12,9,13,7,12,6,1,3,5,6,4,3,2,1,1,0,1,0,4,2,1],"bins":[-0.001004067249596119,-0.0009658533381298184,-0.0009276394848711789,-0.0008894255734048784,-0.0008512116619385779,-0.0008129978086799383,-0.0007747838972136378,-0.0007365699857473373,-0.0006983560742810369,-0.0006601422210223973,-0.0006219283095560968,-0.0005837143980897963,-0.0005455005448311567,-0.0005072866333648562,-0.0004690727510023862,-0.0004308588395360857,-0.0003926449571736157,-0.00035443107481114566,-0.0003162171633448452,-0.00027800328098237514,-0.00023978938406798989,-0.00020157548715360463,-0.0001633616047911346,-0.00012514770787674934,-8.693381096236408e-05,-4.8719917685957626e-05,-1.0506024409551173e-05,2.770786886685528e-05,6.592176214326173e-05,0.00010413565905764699,0.00014234954142011702,0.00018056343833450228,0.00021877733524888754,0.00025699121761135757,0.00029520512907765806,0.0003334190114401281,0.0003716329229064286,0.0004098468052688986,0.00044806068763136864,0.0004862745990976691,0.0005244885105639696,0.0005627023638226092,0.0006009162752889097,0.0006391301867552102,0.0006773440400138497,0.0007155579514801502,0.0007537718629464507,0.0007919857162050903,0.0008301996276713908,0.0008684135391376913,0.0009066273923963308,0.0009448413038626313,0.0009830552153289318,0.0010212691267952323,0.0010594830382615328,0.0010976968333125114,0.001135910744778812,0.0011741246562451124,0.001212338567711413,0.0012505524791777134,0.0012887663906440139,0.0013269801856949925,0.001365194097161293,0.0014034080086275935,0.001441621920093894]},"Gradients/outc.conv.bias":{"values":[0,0,0,0,0,0,0,0,0,0,0,0,0,0,0,0,0,0,0,0,0,0,0,0,0,0,0,0,0,0,0,0,1,0,0,0,0,0,0,0,0,0,0,0,0,0,0,0,0,0,0,0,0,0,0,0,0,0,0,0,0,0,0,0],"bins":[-0.49848198890686035,-0.48285698890686035,-0.46723198890686035,-0.45160698890686035,-0.43598198890686035,-0.42035698890686035,-0.40473198890686035,-0.38910698890686035,-0.37348198890686035,-0.35785698890686035,-0.34223198890686035,-0.32660698890686035,-0.31098198890686035,-0.29535698890686035,-0.27973198890686035,-0.26410698890686035,-0.24848200380802155,-0.23285700380802155,-0.21723200380802155,-0.20160700380802155,-0.18598200380802155,-0.17035700380802155,-0.15473200380802155,-0.13910700380802155,-0.12348199635744095,-0.10785699635744095,-0.09223199635744095,-0.07660699635744095,-0.06098199635744095,-0.04535699635744095,-0.02973199635744095,-0.014106996357440948,0.0015180031768977642,0.01714300364255905,0.03276800364255905,0.04839300364255905,0.06401800364255905,0.07964300364255905,0.09526800364255905,0.11089300364255905,0.12651799619197845,0.14214299619197845,0.15776799619197845,0.17339299619197845,0.18901799619197845,0.20464299619197845,0.22026799619197845,0.23589299619197845,0.25151801109313965,0.26714301109313965,0.28276801109313965,0.29839301109313965,0.31401801109313965,0.32964301109313965,0.34526801109313965,0.36089301109313965,0.37651801109313965,0.39214301109313965,0.40776801109313965,0.42339301109313965,0.43901801109313965,0.45464301109313965,0.47026801109313965,0.48589301109313965,0.5015180110931396],"_type":"histogram"},"Weights/outc.conv.weight":{"values":[2,0,0,0,0,1,0,0,1,0,0,1,0,0,0,0,0,1,0,0,0,1,2,0,3,2,0,0,0,0,0,0,0,1,1,0,1,0,1,1,0,0,1,1,1,0,2,0,2,0,0,0,0,0,0,0,0,1,0,1,0,0,2,2],"bins":[-0.1448047012090683,-0.13998472690582275,-0.1351647675037384,-0.13034479320049286,-0.1255248337984085,-0.12070485949516296,-0.11588489264249802,-0.11106491833925247,-0.10624495148658752,-0.10142498463392258,-0.09660501778125763,-0.09178505092859268,-0.08696507662534714,-0.08214510977268219,-0.07732514292001724,-0.0725051760673523,-0.06768520176410675,-0.0628652349114418,-0.058045268058776855,-0.05322530120611191,-0.04840533062815666,-0.043585363775491714,-0.03876539319753647,-0.03394542634487152,-0.029125457629561424,-0.024305488914251328,-0.01948552019894123,-0.014665552414953709,-0.009845583699643612,-0.005025614984333515,-0.00020564673468470573,0.004614321514964104,0.0094342902302742,0.014254258945584297,0.019074227660894394,0.02389419637620449,0.028714165091514587,0.033534131944179535,0.03835410252213478,0.04317406937479973,0.047994039952754974,0.05281400680541992,0.05763397365808487,0.062453944236040115,0.06727391481399536,0.07209388166666031,0.07691384851932526,0.0817338153719902,0.08655378222465515,0.0913737565279007,0.09619372338056564,0.10101369023323059,0.10583365708589554,0.11065363138914108,0.11547359824180603,0.12029356509447098,0.12511353194713593,0.12993350625038147,0.13475346565246582,0.13957343995571136,0.1443934142589569,0.14921337366104126,0.1540333479642868,0.15885330736637115,0.1636732816696167],"_type":"histogram"},"Gradients/inc.double_conv.3.weight":{"values":[3,0,0,0,1,0,0,1,3,2,6,3,3,5,8,6,6,15,12,13,13,8,10,15,16,28,38,59,86,139,281,669,3445,3221,420,220,106,70,53,52,26,16,16,13,10,10,11,14,17,10,5,4,9,2,5,2,2,1,0,2,2,1,1,1],"bins":[-0.007566328626126051,-0.007337122689932585,-0.007107916753739119,-0.006878710817545652,-0.006649504415690899,-0.006420298479497433,-0.0061910925433039665,-0.0059618866071105,-0.005732680670917034,-0.005503474734723568,-0.005274268798530102,-0.005045062396675348,-0.004815856460481882,-0.004586650524288416,-0.00435744458809495,-0.0041282386519014835,-0.0038990327157080173,-0.0036698265466839075,-0.0034406206104904413,-0.003211414674296975,-0.0029822085052728653,-0.002753002569079399,-0.002523796632885933,-0.0022945906966924667,-0.002065384527668357,-0.0018361785914748907,-0.0016069725388661027,-0.0013777666026726365,-0.0011485605500638485,-0.0009193545556627214,-0.0006901485612615943,-0.0004609425668604672,-0.0002317365724593401,-2.5305707822553813e-06,0.00022667543089482933,0.00045588143984787166,0.0006850874051451683,0.0009142934577539563,0.0011434993939474225,0.0013727054465562105,0.0016019113827496767,0.0018311174353584647,0.0020603234879672527,0.002289529424160719,0.002518735360354185,0.002747941529378295,0.002977147465571761,0.0032063534017652273,0.003435559570789337,0.0036647655069828033,0.0038939714431762695,0.004123177379369736,0.004352383315563202,0.004581589251756668,0.004810795653611422,0.005040001589804888,0.005269207525998354,0.00549841346219182,0.005727619398385286,0.0059568253345787525,0.006186031270772219,0.006415237672626972,0.006644443608820438,0.006873649545013905,0.007102855481207371],"_type":"histogram"},"Gradients/down4.maxpool_conv.1.double_conv.3.weight":{"_type":"histogram","values":[0,0,0,0,0,0,0,0,0,0,0,0,0,0,0,0,0,0,0,0,0,0,0,0,0,0,0,0,0,0,0,0,589824,0,0,0,0,0,0,0,0,0,0,0,0,0,0,0,0,0,0,0,0,0,0,0,0,0,0,0,0,0,0,0],"bins":[-0.5,-0.484375,-0.46875,-0.453125,-0.4375,-0.421875,-0.40625,-0.390625,-0.375,-0.359375,-0.34375,-0.328125,-0.3125,-0.296875,-0.28125,-0.265625,-0.25,-0.234375,-0.21875,-0.203125,-0.1875,-0.171875,-0.15625,-0.140625,-0.125,-0.109375,-0.09375,-0.078125,-0.0625,-0.046875,-0.03125,-0.015625,0,0.015625,0.03125,0.046875,0.0625,0.078125,0.09375,0.109375,0.125,0.140625,0.15625,0.171875,0.1875,0.203125,0.21875,0.234375,0.25,0.265625,0.28125,0.296875,0.3125,0.328125,0.34375,0.359375,0.375,0.390625,0.40625,0.421875,0.4375,0.453125,0.46875,0.484375,0.5]},"_timestamp":1.737824058061607e+09,"Weights/up4.conv.double_conv.3.weight":{"_type":"histogram","values":[1,1,1,0,1,2,2,2,2,9,11,10,16,8,25,30,37,54,69,94,132,369,519,648,706,786,849,851,791,807,702,571,498,247,117,71,52,38,28,15,13,2,5,5,6,2,2,5,0,2,1,0,0,0,0,0,0,0,0,0,0,0,0,1],"bins":[-0.2792154550552368,-0.2691210210323334,-0.2590266168117523,-0.24893218278884888,-0.23883774876594543,-0.22874332964420319,-0.21864889562129974,-0.2085544764995575,-0.19846004247665405,-0.1883656233549118,-0.17827120423316956,-0.1681767702102661,-0.15808235108852386,-0.14798791706562042,-0.13789349794387817,-0.12779906392097473,-0.11770464479923248,-0.10761021822690964,-0.09751579165458679,-0.08742136508226395,-0.0773269385099411,-0.06723251938819885,-0.05713809281587601,-0.04704366624355316,-0.036949239671230316,-0.02685481309890747,-0.016760388389229774,-0.006665962748229504,0.003428462892770767,0.013522888533771038,0.02361731417477131,0.033711738884449005,0.04380616545677185,0.053900592029094696,0.06399501860141754,0.07408944517374039,0.08418387174606323,0.09427829086780548,0.10437271744012833,0.11446714401245117,0.12456157058477402,0.13465599715709686,0.1447504162788391,0.15484485030174255,0.1649392694234848,0.17503370344638824,0.1851281225681305,0.19522255659103394,0.20531697571277618,0.21541139483451843,0.22550582885742188,0.23560024797916412,0.24569468200206757,0.2557891011238098,0.26588353514671326,0.2759779691696167,0.28607237339019775,0.2961668074131012,0.30626124143600464,0.3163556456565857,0.32645007967948914,0.3365445137023926,0.346638947725296,0.3567333519458771,0.3668277859687805]},"Weights/up3.conv.double_conv.3.weight":{"values":[1,0,1,0,1,0,1,0,2,1,1,1,2,4,3,3,8,9,8,21,14,14,35,44,61,84,117,156,226,313,437,653,919,1248,1777,2243,2325,2234,1729,1138,859,517,392,258,163,102,92,60,43,31,21,15,7,8,7,5,4,5,4,3,1,0,0,1],"bins":[-0.6620585918426514,-0.6440585851669312,-0.6260585188865662,-0.608058512210846,-0.590058445930481,-0.5720584392547607,-0.5540584325790405,-0.5360583662986755,-0.5180583596229553,-0.5000582933425903,-0.4820582866668701,-0.4640582501888275,-0.4460582137107849,-0.4280581772327423,-0.4100581705570221,-0.3920581340789795,-0.3740580976009369,-0.3560580611228943,-0.3380580246448517,-0.32005801796913147,-0.30205798149108887,-0.28405794501304626,-0.26605790853500366,-0.24805788695812225,-0.23005785048007965,-0.21205781400203705,-0.19405779242515564,-0.17605775594711304,-0.15805771946907043,-0.14005769789218903,-0.12205766141414642,-0.10405763238668442,-0.08605760335922241,-0.0680575743317604,-0.0500575415790081,-0.0320575088262558,-0.014057479798793793,0.003942551091313362,0.021942581981420517,0.03994261473417282,0.05794264376163483,0.07594267278909683,0.09394270181655884,0.11194273829460144,0.12994277477264404,0.14794279634952545,0.16594283282756805,0.18394285440444946,0.20194289088249207,0.21994292736053467,0.23794294893741608,0.2559429705142975,0.2739430069923401,0.2919430434703827,0.3099430799484253,0.3279431164264679,0.3459431529045105,0.3639431595802307,0.3819431960582733,0.3999432325363159,0.4179432690143585,0.4359433054924011,0.45394331216812134,0.47194334864616394,0.48994338512420654],"_type":"histogram"},"Gradients/up2.conv.double_conv.3.weight":{"bins":[-0.0009194925660267472,-0.0008911947952583432,-0.0008628970244899392,-0.0008345991955138743,-0.0008063014247454703,-0.0007780036539770663,-0.0007497058250010014,-0.0007214080542325974,-0.0006931102834641933,-0.0006648125126957893,-0.0006365147419273853,-0.0006082169129513204,-0.0005799191421829164,-0.0005516213714145124,-0.0005233235424384475,-0.0004950257716700435,-0.00046672800090163946,-0.00043843023013323545,-0.000410132430261001,-0.00038183463038876653,-0.0003535368596203625,-0.0003252390888519585,-0.00029694128897972405,-0.0002686434891074896,-0.00024034571833908558,-0.00021204793301876634,-0.0001837501476984471,-0.00015545236237812787,-0.00012715457705780864,-9.88567917374894e-05,-7.055900641717017e-05,-4.226122109685093e-05,-1.3963435776531696e-05,1.4334349543787539e-05,4.2632134864106774e-05,7.092992018442601e-05,9.922770550474524e-05,0.00012752549082506448,0.00015582327614538372,0.00018412106146570295,0.00021241884678602219,0.00024071663210634142,0.00026901441742666066,0.0002973122172988951,0.00032560998806729913,0.00035390775883570313,0.0003822055587079376,0.00041050335858017206,0.00043880112934857607,0.0004670989001169801,0.0004953966708853841,0.000523694499861449,0.000551992270629853,0.000580290041398257,0.0006085878703743219,0.0006368856411427259,0.00066518341191113,0.000693481182679534,0.000721778953447938,0.0007500767824240029,0.0007783745531924069,0.0008066723239608109,0.0008349701529368758,0.0008632679237052798,0.0008915656944736838],"_type":"histogram","values":[1,0,1,0,0,1,1,1,3,0,4,3,3,2,10,4,8,13,13,20,26,29,41,68,68,123,193,368,598,1126,2538,8412,42836,9703,3524,1592,871,500,309,203,132,103,73,41,38,24,21,20,9,11,8,6,4,4,3,6,5,2,1,0,0,0,0,1]},"test set Precision":0.7956105437804579,"train Precision":0.920447917663839,"Gradients/down4.maxpool_conv.1.double_conv.0.weight":{"values":[0,0,0,0,0,0,0,0,0,0,0,0,0,0,0,0,0,0,0,0,0,0,0,0,0,0,0,0,0,0,0,0,589824,0,0,0,0,0,0,0,0,0,0,0,0,0,0,0,0,0,0,0,0,0,0,0,0,0,0,0,0,0,0,0],"bins":[-0.5,-0.484375,-0.46875,-0.453125,-0.4375,-0.421875,-0.40625,-0.390625,-0.375,-0.359375,-0.34375,-0.328125,-0.3125,-0.296875,-0.28125,-0.265625,-0.25,-0.234375,-0.21875,-0.203125,-0.1875,-0.171875,-0.15625,-0.140625,-0.125,-0.109375,-0.09375,-0.078125,-0.0625,-0.046875,-0.03125,-0.015625,0,0.015625,0.03125,0.046875,0.0625,0.078125,0.09375,0.109375,0.125,0.140625,0.15625,0.171875,0.1875,0.203125,0.21875,0.234375,0.25,0.265625,0.28125,0.296875,0.3125,0.328125,0.34375,0.359375,0.375,0.390625,0.40625,0.421875,0.4375,0.453125,0.46875,0.484375,0.5],"_type":"histogram"},"Weights/inc.double_conv.3.weight":{"values":[2,0,0,0,1,1,1,0,0,3,1,1,3,6,5,9,8,8,14,18,33,36,39,64,73,120,151,222,357,481,559,624,650,706,672,689,653,650,567,572,418,257,174,120,79,51,40,21,12,14,7,7,9,1,2,2,2,0,0,0,0,0,0,1],"bins":[-0.33560648560523987,-0.32612961530685425,-0.31665274500846863,-0.307175874710083,-0.2976990044116974,-0.28822213411331177,-0.27874526381492615,-0.2692683935165405,-0.2597915232181549,-0.2503146529197693,-0.24083779752254486,-0.23136092722415924,-0.22188405692577362,-0.212407186627388,-0.20293031632900238,-0.19345344603061676,-0.18397657573223114,-0.17449970543384552,-0.1650228351354599,-0.15554596483707428,-0.14606909453868866,-0.13659222424030304,-0.12711535394191742,-0.1176384910941124,-0.10816162079572678,-0.09868475049734116,-0.08920788019895554,-0.07973100990056992,-0.07025414705276489,-0.060777273029088974,-0.05130040645599365,-0.04182353615760803,-0.03234666585922241,-0.022869795560836792,-0.013392927125096321,-0.003916057758033276,0.00556081160902977,0.015037680976092815,0.02451455034315586,0.03399141877889633,0.04346828907728195,0.05294515937566757,0.06242202967405319,0.07189889997243881,0.08137576282024384,0.09085263311862946,0.10032950341701508,0.1098063737154007,0.11928324401378632,0.12876011431217194,0.13823698461055756,0.14771385490894318,0.1571907252073288,0.16666759550571442,0.17614446580410004,0.18562133610248566,0.19509819149971008,0.2045750617980957,0.21405193209648132,0.22352880239486694,0.23300567269325256,0.24248254299163818,0.2519594132900238,0.2614362835884094,0.27091315388679504],"_type":"histogram"},"Weights/down3.maxpool_conv.1.double_conv.0.weight":{"_type":"histogram","values":[2,1,0,1,2,1,3,4,6,5,18,21,33,52,73,123,176,295,476,756,1225,2116,3380,7007,27410,39988,41591,41768,40764,39071,31953,10896,2386,1058,658,396,339,224,152,111,86,62,60,45,23,18,15,11,13,6,8,3,4,1,2,4,3,0,1,0,1,2,0,3],"bins":[-0.2468162626028061,-0.23804834485054016,-0.22928042709827423,-0.2205124944448471,-0.21174457669258118,-0.20297665894031525,-0.19420874118804932,-0.1854408234357834,-0.17667290568351746,-0.16790497303009033,-0.1591370552778244,-0.15036913752555847,-0.14160121977329254,-0.1328333020210266,-0.12406537681818008,-0.11529745906591415,-0.10652953386306763,-0.0977616161108017,-0.08899369835853577,-0.08022577315568924,-0.07145785540342331,-0.06268993765115738,-0.05392201617360115,-0.04515409469604492,-0.03638617694377899,-0.027618255466222763,-0.018850333988666534,-0.010082414373755455,-0.001314493827521801,0.007453426718711853,0.016221346333622932,0.02498926781117916,0.03375718742609024,0.04252510890364647,0.0512930266559124,0.06006094813346863,0.06882886588573456,0.07759679108858109,0.08636470884084702,0.09513262659311295,0.10390055179595947,0.1126684695482254,0.12143638730049133,0.13020430505275726,0.1389722377061844,0.14774015545845032,0.15650807321071625,0.16527599096298218,0.1740439087152481,0.18281182646751404,0.19157975912094116,0.2003476768732071,0.20911559462547302,0.21788351237773895,0.22665143013000488,0.2354193478822708,0.24418728053569794,0.25295519828796387,0.2617231011390686,0.2704910337924957,0.27925896644592285,0.2880268692970276,0.2967948019504547,0.30556270480155945,0.3143306374549866]},"Gradients/up3.conv.double_conv.0.weight":{"_type":"histogram","values":[1,0,0,1,1,3,4,2,2,5,13,6,10,11,13,22,21,32,32,37,55,96,176,365,826,2250,8158,47645,9478,2235,918,434,222,174,108,91,46,43,33,19,21,21,14,7,12,7,7,7,10,4,5,5,3,4,1,1,0,2,0,3,3,0,0,3],"bins":[-0.0010661210399121046,-0.0010275915265083313,-0.0009890618966892362,-0.0009505323250778019,-0.0009120028116740286,-0.0008734732400625944,-0.0008349436684511602,-0.000796414096839726,-0.0007578845252282917,-0.0007193549536168575,-0.0006808254402130842,-0.00064229586860165,-0.0006037662969902158,-0.0005652367253787816,-0.0005267071537673473,-0.00048817761125974357,-0.00044964803964830935,-0.00041111846803687513,-0.00037258892552927136,-0.00033405935391783714,-0.0002955297823064029,-0.00025700023979879916,-0.00021847066818736494,-0.00017994109657593071,-0.00014141153951641172,-0.00010288197518093511,-6.435241084545851e-05,-2.582285196695011e-05,1.2706710549537092e-05,5.12362748850137e-05,8.976583194453269e-05,0.00012829540355596691,0.0001668249606154859,0.0002053545176750049,0.00024388408928643912,0.0002824136463459581,0.00032094321795739233,0.0003594727604649961,0.0003980023320764303,0.00043653190368786454,0.00047506147529929876,0.000513591046910733,0.0005521205603145063,0.0005906501319259405,0.0006291797035373747,0.000667709275148809,0.0007062388467602432,0.0007447684183716774,0.0007832979317754507,0.0008218275033868849,0.0008603570749983191,0.0008988866466097534,0.0009374162182211876,0.0009759457898326218,0.001014475361444056,0.0010530048748478293,0.0010915345046669245,0.0011300640180706978,0.001168593531474471,0.0012071231612935662,0.0012456526746973395,0.0012841823045164347,0.001322711817920208,0.0013612414477393031,0.0013997709611430764]},"Weights/up3.conv.double_conv.0.weight":{"values":[1,0,0,1,1,0,2,2,3,1,2,1,7,9,8,10,26,43,49,68,104,125,202,279,401,547,799,982,1395,1974,2394,3212,4129,5378,7225,8480,8653,7469,5423,4080,3005,2228,1523,1100,759,499,351,280,167,124,63,59,24,18,17,10,6,2,3,0,0,2,2,1],"bins":[-0.6842546463012695,-0.665497362613678,-0.6467400789260864,-0.6279827952384949,-0.6092255115509033,-0.5904682874679565,-0.571711003780365,-0.5529537200927734,-0.5341964364051819,-0.5154391527175903,-0.4966818690299988,-0.4779246151447296,-0.45916733145713806,-0.4404100477695465,-0.42165279388427734,-0.4028955101966858,-0.38413822650909424,-0.3653809428215027,-0.34662365913391113,-0.32786640524864197,-0.3091091215610504,-0.29035183787345886,-0.2715945839881897,-0.25283730030059814,-0.2340800166130066,-0.21532273292541504,-0.19656546413898468,-0.17780819535255432,-0.15905091166496277,-0.14029362797737122,-0.12153635919094086,-0.1027790829539299,-0.08402180671691895,-0.06526453047990799,-0.046507254242897034,-0.027749978005886078,-0.008992701768875122,0.009764574468135834,0.02852185070514679,0.047279126942157745,0.0660364031791687,0.08479367941617966,0.10355095565319061,0.12230823189020157,0.14106550812721252,0.15982279181480408,0.17858006060123444,0.1973373293876648,0.21609461307525635,0.2348518967628479,0.25360918045043945,0.2723664343357086,0.29112371802330017,0.3098810017108917,0.3286382555961609,0.34739553928375244,0.366152822971344,0.38491010665893555,0.4036673903465271,0.42242464423179626,0.4411819279193878,0.45993921160697937,0.47869646549224854,0.4974537491798401,0.5162110328674316],"_type":"histogram"},"Weights/up4.conv.double_conv.0.weight":{"_type":"histogram","values":[1,1,0,0,1,0,0,1,3,5,6,6,5,15,9,14,23,15,21,38,34,59,61,90,128,154,203,304,368,497,890,1728,2134,2442,2445,2317,1776,878,527,350,244,177,139,91,75,43,30,24,19,7,8,8,5,4,2,0,1,1,1,2,0,0,1,1],"bins":[-0.4553336799144745,-0.44206854701042175,-0.428803414106369,-0.41553831100463867,-0.40227317810058594,-0.3890080451965332,-0.37574291229248047,-0.36247777938842773,-0.349212646484375,-0.33594754338264465,-0.3226824104785919,-0.3094172775745392,-0.29615214467048645,-0.2828870117664337,-0.26962190866470337,-0.25635677576065063,-0.2430916428565979,-0.22982650995254517,-0.21656139194965363,-0.2032962590456009,-0.19003114104270935,-0.17676600813865662,-0.16350087523460388,-0.15023575723171234,-0.1369706243276596,-0.12370549887418747,-0.11044037342071533,-0.0971752405166626,-0.08391011506319046,-0.07064498960971832,-0.05737986043095589,-0.04411473125219345,-0.030849605798721313,-0.017584478482604027,-0.00431935116648674,0.008945776149630547,0.022210903465747833,0.03547602891921997,0.04874115809798241,0.06200628727674484,0.07527141273021698,0.08853653818368912,0.10180166363716125,0.11506679654121399,0.12833192944526672,0.14159704744815826,0.154862180352211,0.16812729835510254,0.18139243125915527,0.194657564163208,0.20792268216609955,0.22118781507015228,0.23445293307304382,0.24771806597709656,0.2609831988811493,0.274248331785202,0.2875134348869324,0.3007785677909851,0.31404370069503784,0.3273088335990906,0.3405739665031433,0.35383909940719604,0.3671042025089264,0.3803693354129791,0.39363446831703186]},"validation Recall":0.9020530882511866,"test set BCE":0.20235630869865417,"validation Precision":0.9020530882511866,"Gradients/down1.maxpool_conv.1.double_conv.0.weight":{"values":[2,0,4,1,1,1,8,11,6,16,10,8,15,26,34,53,72,135,226,339,617,1324,4788,7889,1294,558,319,183,120,93,55,61,39,26,11,22,20,6,6,12,4,7,3,1,1,1,0,0,0,0,0,0,1,0,1,0,1,0,0,0,0,0,0,1],"bins":[-0.002407361753284931,-0.002303219633176923,-0.0021990775130689144,-0.0020949351601302624,-0.001990793040022254,-0.0018866509199142456,-0.0017825086833909154,-0.001678366563282907,-0.0015742243267595768,-0.0014700822066515684,-0.00136594008654356,-0.0012617978500202298,-0.0011576557299122214,-0.0010535134933888912,-0.0009493713732808828,-0.0008452291949652135,-0.0007410870166495442,-0.0006369448383338749,-0.0005328026600182056,-0.0004286605108063668,-0.0003245183324906975,-0.0002203761541750282,-0.00011623399041127414,-1.2091819371562451e-05,9.205035166814923e-05,0.00019619252998381853,0.00030033470829948783,0.00040447685751132667,0.0005086190067231655,0.0006127611850388348,0.0007169033633545041,0.0008210455416701734,0.0009251877199858427,0.001029329840093851,0.0011334720766171813,0.0012376141967251897,0.00134175643324852,0.0014458985533565283,0.0015500407898798585,0.0016541829099878669,0.001758325146511197,0.0018624672666192055,0.001966609386727214,0.0020707515068352222,0.0021748938597738743,0.0022790359798818827,0.002383178099989891,0.0024873202200978994,0.002591462340205908,0.00269560469314456,0.0027997468132525682,0.0029038889333605766,0.003008031053468585,0.003112173406407237,0.0032163155265152454,0.003320457646623254,0.003424599766731262,0.0035287418868392706,0.0036328842397779226,0.003737026359885931,0.0038411684799939394,0.003945310600101948,0.0040494529530406,0.0041535948403179646,0.004257737193256617],"_type":"histogram"},"validation BCE loss":0.021138254553079605,"Weights/down3.maxpool_conv.1.double_conv.3.weight":{"_type":"histogram","values":[1,0,0,0,1,0,1,0,0,1,1,1,4,9,10,19,17,26,35,56,78,116,180,277,411,603,932,1586,2449,4498,8350,36038,67738,81833,84384,82922,81462,75018,38301,14371,3564,1670,861,608,390,317,199,140,102,60,38,34,23,14,15,8,12,10,11,6,2,5,2,4],"bins":[-0.2197331190109253,-0.2135789841413498,-0.20742486417293549,-0.20127072930335999,-0.19511660933494568,-0.18896247446537018,-0.18280835449695587,-0.17665421962738037,-0.17050009965896606,-0.16434596478939056,-0.15819182991981506,-0.15203770995140076,-0.14588357508182526,-0.13972945511341095,-0.13357532024383545,-0.12742120027542114,-0.12126706540584564,-0.11511293798685074,-0.10895881056785583,-0.10280468314886093,-0.09665055572986603,-0.09049642086029053,-0.08434229344129562,-0.07818816602230072,-0.07203403860330582,-0.06587991118431091,-0.05972578376531601,-0.05357165262103081,-0.047417525202035904,-0.041263397783041,-0.0351092666387558,-0.028955139219760895,-0.02280101180076599,-0.016646884381771088,-0.010492755100131035,-0.004338626749813557,0.0018155016005039215,0.0079696299508214,0.014123758301138878,0.02027788758277893,0.026432015001773834,0.03258614242076874,0.03874026983976364,0.04489440098404884,0.05104852840304375,0.05720265582203865,0.06335678696632385,0.06951091438531876,0.07566504180431366,0.08181916922330856,0.08797329664230347,0.09412742406129837,0.10028155148029327,0.10643568634986877,0.11258981376886368,0.11874394118785858,0.12489806860685349,0.1310521960258484,0.1372063308954239,0.1433604508638382,0.1495145857334137,0.155668705701828,0.1618228405714035,0.1679769605398178,0.1741310954093933]},"Gradients/up1.conv.double_conv.0.weight":{"values":[0,0,0,0,0,0,0,0,0,0,0,0,0,0,0,0,0,0,0,0,0,0,0,0,0,0,0,0,0,0,0,0,1179648,0,0,0,0,0,0,0,0,0,0,0,0,0,0,0,0,0,0,0,0,0,0,0,0,0,0,0,0,0,0,0],"bins":[-0.5,-0.484375,-0.46875,-0.453125,-0.4375,-0.421875,-0.40625,-0.390625,-0.375,-0.359375,-0.34375,-0.328125,-0.3125,-0.296875,-0.28125,-0.265625,-0.25,-0.234375,-0.21875,-0.203125,-0.1875,-0.171875,-0.15625,-0.140625,-0.125,-0.109375,-0.09375,-0.078125,-0.0625,-0.046875,-0.03125,-0.015625,0,0.015625,0.03125,0.046875,0.0625,0.078125,0.09375,0.109375,0.125,0.140625,0.15625,0.171875,0.1875,0.203125,0.21875,0.234375,0.25,0.265625,0.28125,0.296875,0.3125,0.328125,0.34375,0.359375,0.375,0.390625,0.40625,0.421875,0.4375,0.453125,0.46875,0.484375,0.5],"_type":"histogram"},"epoch":149,"Weights/down4.maxpool_conv.1.double_conv.3.weight":{"bins":[-0.12002802640199661,-0.11572837084531784,-0.11142871528863907,-0.1071290522813797,-0.10282939672470093,-0.09852974116802216,-0.09423008561134338,-0.08993042260408401,-0.08563076704740524,-0.08133111149072647,-0.0770314559340477,-0.07273179292678833,-0.06843213737010956,-0.06413248181343079,-0.059832822531461716,-0.055533166974782944,-0.05123350769281387,-0.0469338521361351,-0.04263419657945633,-0.03833453729748726,-0.03403488174080849,-0.029735222458839417,-0.025435565039515495,-0.021135907620191574,-0.016836252063512802,-0.012536593712866306,-0.008236936293542385,-0.003937279339879751,0.00036237807944417,0.004662035498768091,0.008961692452430725,0.013261349871754646,0.017561007291078568,0.02186066471040249,0.02616032212972641,0.03045997954905033,0.03475963696837425,0.039059292525053024,0.043358951807022095,0.04765860736370087,0.05195826664566994,0.05625792220234871,0.06055758148431778,0.06485723704099655,0.06915689259767532,0.07345655560493469,0.07775621116161346,0.08205586671829224,0.08635552227497101,0.09065517783164978,0.09495484083890915,0.09925449639558792,0.1035541519522667,0.10785380750894547,0.11215347051620483,0.1164531260728836,0.12075278162956238,0.12505243718624115,0.12935209274291992,0.1336517482995987,0.13795141875743866,0.14225107431411743,0.1465507298707962,0.15085038542747498,0.15515004098415375],"_type":"histogram","values":[1,1,0,1,0,4,9,9,10,18,28,28,61,98,139,288,470,849,1419,2356,4283,11014,35978,50695,57631,59613,60156,59220,58851,57763,55464,41006,18652,7563,2029,1144,835,555,381,303,244,173,139,93,56,46,42,23,16,15,13,10,10,6,6,0,1,2,1,0,1,0,0,2]},"Weights/down1.maxpool_conv.1.double_conv.3.weight":{"bins":[-0.4790552258491516,-0.4655635356903076,-0.4520718455314636,-0.43858015537261963,-0.42508846521377563,-0.41159677505493164,-0.39810508489608765,-0.38461339473724365,-0.37112170457839966,-0.35763001441955566,-0.34413832426071167,-0.3306466341018677,-0.3171549439430237,-0.3036632537841797,-0.2901715636253357,-0.2766798734664917,-0.2631881833076477,-0.24969647824764252,-0.23620478808879852,-0.22271309792995453,-0.20922140777111053,-0.19572971761226654,-0.18223802745342255,-0.16874633729457855,-0.15525463223457336,-0.14176294207572937,-0.12827125191688538,-0.11477956920862198,-0.10128787159919739,-0.0877961814403534,-0.0743044912815094,-0.060812801122665405,-0.04732111096382141,-0.03382942080497742,-0.020337728783488274,-0.006846037693321705,0.006645653396844864,0.020137343555688858,0.03362903743982315,0.047120727598667145,0.06061241775751114,0.07410410791635513,0.08759579807519913,0.10108748823404312,0.11457918584346771,0.1280708760023117,0.1415625661611557,0.1550542563199997,0.1685459464788437,0.18203763663768768,0.19552932679653168,0.20902101695537567,0.22251270711421967,0.23600439727306366,0.24949608743190765,0.26298779249191284,0.27647948265075684,0.28997117280960083,0.3034628629684448,0.3169545531272888,0.3304462432861328,0.3439379334449768,0.3574296236038208,0.3709213137626648,0.3844130039215088],"_type":"histogram","values":[1,1,1,0,1,2,4,5,13,13,14,24,39,33,58,69,88,114,165,206,255,303,408,558,599,716,892,1043,1261,1487,1854,2065,2463,2644,2656,2735,2621,2372,1928,1741,1264,1043,849,592,441,337,236,210,134,79,75,52,33,22,19,11,4,2,2,2,3,1,0,1]},"Gradients/down3.maxpool_conv.1.double_conv.0.weight":{"values":[0,0,0,0,0,0,0,0,0,0,0,0,0,0,0,0,0,0,0,0,0,0,0,0,0,0,0,0,0,0,0,0,294912,0,0,0,0,0,0,0,0,0,0,0,0,0,0,0,0,0,0,0,0,0,0,0,0,0,0,0,0,0,0,0],"bins":[-0.5,-0.484375,-0.46875,-0.453125,-0.4375,-0.421875,-0.40625,-0.390625,-0.375,-0.359375,-0.34375,-0.328125,-0.3125,-0.296875,-0.28125,-0.265625,-0.25,-0.234375,-0.21875,-0.203125,-0.1875,-0.171875,-0.15625,-0.140625,-0.125,-0.109375,-0.09375,-0.078125,-0.0625,-0.046875,-0.03125,-0.015625,0,0.015625,0.03125,0.046875,0.0625,0.078125,0.09375,0.109375,0.125,0.140625,0.15625,0.171875,0.1875,0.203125,0.21875,0.234375,0.25,0.265625,0.28125,0.296875,0.3125,0.328125,0.34375,0.359375,0.375,0.390625,0.40625,0.421875,0.4375,0.453125,0.46875,0.484375,0.5],"_type":"histogram"},"Gradients/down2.maxpool_conv.1.double_conv.0.weight":{"values":[1,1,0,0,0,0,0,1,1,1,1,2,2,2,3,4,3,4,9,4,3,11,10,14,20,39,41,57,100,132,188,315,567,1003,1931,4328,38341,16457,5030,2214,1159,630,394,245,144,82,69,44,35,16,13,15,9,7,7,6,3,3,2,3,0,1,0,1],"bins":[-0.001624553115107119,-0.001580621930770576,-0.001536690630018711,-0.001492759445682168,-0.001448828144930303,-0.00140489696059376,-0.001360965776257217,-0.001317034475505352,-0.001273103291168809,-0.001229171990416944,-0.001185240806080401,-0.0011413096217438579,-0.001097378320991993,-0.0010534471366554499,-0.0010095159523189068,-0.0009655846515670419,-0.0009216534672304988,-0.0008777222246862948,-0.0008337909821420908,-0.0007898597395978868,-0.0007459284970536828,-0.0007019973127171397,-0.0006580660701729357,-0.0006141348276287317,-0.0005702035850845277,-0.0005262723425403237,-0.0004823411290999502,-0.00043840991565957665,-0.00039447867311537266,-0.0003505474596749991,-0.0003066162171307951,-0.0002626850036904216,-0.00021875376114621758,-0.00017482253315392882,-0.00013089130516164005,-8.696006989339367e-05,-4.30288419011049e-05,9.023879101732746e-07,4.4833617721451446e-05,8.876484935171902e-05,0.0001326960773440078,0.00017662730533629656,0.00022055853332858533,0.0002644897613208741,0.0003084210038650781,0.00035235221730545163,0.00039628345984965563,0.00044021467329002917,0.00048414591583423316,0.0005280771292746067,0.0005720083718188107,0.0006159396143630147,0.0006598708569072187,0.0007038020412437618,0.0007477332837879658,0.0007916645263321698,0.0008355957688763738,0.0008795270114205778,0.0009234581957571208,0.0009673894383013248,0.001011320622637868,0.0010552519233897328,0.001099183107726276,0.0011431144084781408,0.001187045592814684],"_type":"histogram"},"Gradients/up1.conv.double_conv.3.weight":{"_type":"histogram","values":[0,0,0,0,0,0,0,0,0,0,0,0,0,0,0,0,0,0,0,0,0,0,0,0,0,0,0,0,0,0,0,0,294912,0,0,0,0,0,0,0,0,0,0,0,0,0,0,0,0,0,0,0,0,0,0,0,0,0,0,0,0,0,0,0],"bins":[-0.5,-0.484375,-0.46875,-0.453125,-0.4375,-0.421875,-0.40625,-0.390625,-0.375,-0.359375,-0.34375,-0.328125,-0.3125,-0.296875,-0.28125,-0.265625,-0.25,-0.234375,-0.21875,-0.203125,-0.1875,-0.171875,-0.15625,-0.140625,-0.125,-0.109375,-0.09375,-0.078125,-0.0625,-0.046875,-0.03125,-0.015625,0,0.015625,0.03125,0.046875,0.0625,0.078125,0.09375,0.109375,0.125,0.140625,0.15625,0.171875,0.1875,0.203125,0.21875,0.234375,0.25,0.265625,0.28125,0.296875,0.3125,0.328125,0.34375,0.359375,0.375,0.390625,0.40625,0.421875,0.4375,0.453125,0.46875,0.484375,0.5]},"Weights/up2.conv.double_conv.0.weight":{"values":[1,0,0,0,0,0,1,3,0,4,7,5,15,21,19,39,68,97,110,166,268,358,558,711,957,1253,1722,2233,2818,3468,4401,5257,6323,7490,9295,12653,50802,77320,58286,15587,8415,6133,4834,3757,2821,1970,1459,1077,721,503,311,226,134,69,78,34,28,10,5,5,3,0,1,2],"bins":[-0.6674377918243408,-0.649718165397644,-0.631998598575592,-0.6142789721488953,-0.5965594053268433,-0.5788397789001465,-0.5611202120780945,-0.5434005856513977,-0.5256810188293457,-0.5079613924026489,-0.49024179577827454,-0.47252219915390015,-0.45480260252952576,-0.43708300590515137,-0.419363409280777,-0.4016438126564026,-0.3839242160320282,-0.3662046194076538,-0.3484850227832794,-0.33076542615890503,-0.31304579973220825,-0.29532620310783386,-0.2776066064834595,-0.2598870098590851,-0.2421674132347107,-0.2244478166103363,-0.20672821998596191,-0.18900862336158752,-0.17128902673721313,-0.15356941521167755,-0.13584981858730316,-0.11813022196292877,-0.10041062533855438,-0.08269102871417999,-0.064971424639225,-0.047251828014850616,-0.029532229527831078,-0.011812631040811539,0.005906968377530575,0.02362656779587269,0.04134616628289223,0.059065766632556915,0.0767853632569313,0.0945049598813057,0.11222456395626068,0.12994416058063507,0.14766375720500946,0.16538335382938385,0.18310296535491943,0.20082256197929382,0.2185421586036682,0.2362617552280426,0.253981351852417,0.2717009484767914,0.28942054510116577,0.30714014172554016,0.32485973834991455,0.34257933497428894,0.3602989614009857,0.3780185580253601,0.3957381546497345,0.4134577512741089,0.4311773478984833,0.44889694452285767,0.46661654114723206],"_type":"histogram"},"Weights/up1.conv.double_conv.3.weight":{"bins":[-0.18210819363594055,-0.1772950291633606,-0.17248184978961945,-0.1676686853170395,-0.16285552084445953,-0.15804235637187958,-0.15322917699813843,-0.14841601252555847,-0.14360284805297852,-0.13878966867923737,-0.1339765042066574,-0.12916333973407745,-0.1243501678109169,-0.11953699588775635,-0.11472383141517639,-0.10991065949201584,-0.10509748756885529,-0.10028432309627533,-0.09547115117311478,-0.09065798670053482,-0.08584481477737427,-0.08103165030479431,-0.07621847838163376,-0.0714053064584732,-0.06659214198589325,-0.0617789700627327,-0.05696580186486244,-0.05215263366699219,-0.04733946546912193,-0.04252629727125168,-0.037713125348091125,-0.03289995715022087,-0.028086788952350616,-0.023273620754480362,-0.018460450693964958,-0.013647282496094704,-0.008834113366901875,-0.004020944237709045,0.0007922244258224964,0.005605393089354038,0.010418562218546867,0.015231731347739697,0.020044900476932526,0.02485806867480278,0.029671236872673035,0.03448440507054329,0.03929757699370384,0.0441107451915741,0.04892391338944435,0.053737081587314606,0.05855024978518486,0.06336341798305511,0.06817658990621567,0.07298975437879562,0.07780292630195618,0.08261609822511673,0.08742926269769669,0.09224243462085724,0.0970555990934372,0.10186877101659775,0.1066819429397583,0.11149510741233826,0.11630827933549881,0.12112144380807877,0.12593461573123932],"_type":"histogram","values":[2,0,1,2,1,0,2,1,1,0,1,0,3,4,2,3,6,4,8,11,34,30,48,69,102,133,221,275,427,646,1143,2032,15357,25701,30161,34083,33905,33130,33380,32631,30325,11900,6531,1967,287,130,77,52,25,22,12,7,7,2,3,0,1,1,0,1,1,0,0,1]},"learning rate":0.001,"Weights/down1.maxpool_conv.1.double_conv.0.weight":{"_type":"histogram","values":[1,0,0,1,1,0,1,1,3,1,2,7,11,11,17,27,17,42,45,67,85,117,158,178,245,338,425,552,685,836,1044,1232,1389,1535,1465,1403,1274,1189,1012,858,608,462,361,235,168,117,64,55,35,13,16,7,5,4,0,2,1,0,1,0,1,1,0,1],"bins":[-0.5056024789810181,-0.49111315608024597,-0.4766238331794739,-0.46213454008102417,-0.4476452171802521,-0.43315589427948,-0.4186666011810303,-0.4041772782802582,-0.3896879553794861,-0.375198632478714,-0.3607093095779419,-0.3462200164794922,-0.3317306935787201,-0.317241370677948,-0.3027520775794983,-0.2882627546787262,-0.2737734317779541,-0.259284108877182,-0.2447948008775711,-0.2303054928779602,-0.2158161699771881,-0.20132684707641602,-0.18683753907680511,-0.1723482310771942,-0.15785890817642212,-0.14336958527565002,-0.12888027727603912,-0.11439096182584763,-0.09990164637565613,-0.08541233092546463,-0.07092301547527313,-0.056433700025081635,-0.04194438457489014,-0.02745506912469864,-0.012965753674507141,0.0015235617756843567,0.016012877225875854,0.030502192676067352,0.04499150812625885,0.05948082357645035,0.07397013902664185,0.08845945447683334,0.10294876992702484,0.11743808537721634,0.13192740082740784,0.14641672372817993,0.16090603172779083,0.17539533972740173,0.18988466262817383,0.20437398552894592,0.21886329352855682,0.23335260152816772,0.24784192442893982,0.2623312473297119,0.2768205404281616,0.2913098633289337,0.3057991862297058,0.3202885091304779,0.33477783203125,0.3492671251296997,0.3637564480304718,0.3782457709312439,0.3927350640296936,0.4072243869304657,0.4217137098312378]},"test set Recall":0.9473684210526315,"Gradients/inc.double_conv.0.weight":{"values":[3,2,3,1,0,0,0,1,4,2,1,1,0,0,0,0,0,10,1,2,7,8,6,54,8087,818,149,9,8,4,2,3,3,4,4,1,0,1,0,0,0,1,1,0,2,1,0,0,2,0,0,0,1,0,0,0,0,1,1,2,1,0,3,1],"bins":[-0.07877778261899948,-0.07562147825956345,-0.07246516644954681,-0.06930886209011078,-0.06615255028009415,-0.06299624592065811,-0.05983993783593178,-0.056683629751205444,-0.05352732166647911,-0.05037101358175278,-0.047214705497026443,-0.04405839741230011,-0.040902089327573776,-0.03774578124284744,-0.03458947315812111,-0.031433165073394775,-0.02827685885131359,-0.025120550766587257,-0.021964242681860924,-0.01880793645977974,-0.015651628375053406,-0.012495320290327072,-0.009339012205600739,-0.006182704586535692,-0.003026396967470646,0.00012991076800972223,0.0032862185034900904,0.00644252635538578,0.009598834440112114,0.012755141593515873,0.015911448746919632,0.019067756831645966,0.0222240649163723,0.025380373001098633,0.028536681085824966,0.0316929891705513,0.034849297255277634,0.03800560534000397,0.04116190969944,0.044318217784166336,0.04747452586889267,0.050630833953619,0.05378714203834534,0.05694345012307167,0.060099758207798004,0.06325606256723404,0.06641237437725067,0.0695686787366867,0.07272499054670334,0.07588129490613937,0.079037606716156,0.08219391107559204,0.08535022288560867,0.08850652724504471,0.09166283160448074,0.09481914341449738,0.09797544777393341,0.10113175958395004,0.10428806394338608,0.10744437575340271,0.11060068011283875,0.11375699192285538,0.11691329628229141,0.12006960809230804,0.12322591245174408],"_type":"histogram"},"_step":300,"Gradients/up3.conv.double_conv.3.weight":{"bins":[-0.0007028644904494286,-0.0006782565033063293,-0.0006536485743708909,-0.0006290405872277915,-0.0006044326582923532,-0.0005798246711492538,-0.0005552167422138155,-0.0005306087550707161,-0.0005060008261352777,-0.00048139283899217844,-0.0004567848809529096,-0.00043217692291364074,-0.0004075689648743719,-0.00038296100683510303,-0.0003583530487958342,-0.00033374509075656533,-0.000309137103613466,-0.0002845291455741972,-0.0002599211875349283,-0.00023531322949565947,-0.00021070527145639062,-0.00018609731341712177,-0.00016148935537785292,-0.00013688139733858407,-0.0001122734320233576,-8.766547398408875e-05,-6.305750866886228e-05,-3.844955062959343e-05,-1.3841588952345774e-05,1.0766371815407183e-05,3.5374330764170736e-05,5.9982292441418394e-05,8.459025411866605e-05,0.0001091982121579349,0.00013380617019720376,0.00015841414278838784,0.00018302210082765669,0.00020763005886692554,0.0002322380169061944,0.00025684598949737847,0.0002814539475366473,0.00030606190557591617,0.000330669863615185,0.0003552778216544539,0.0003798857796937227,0.0004044937377329916,0.00042910169577226043,0.0004537096538115293,0.00047831761185079813,0.0005029255989938974,0.0005275335279293358,0.0005521415150724351,0.0005767494440078735,0.0006013574311509728,0.0006259654182940722,0.0006505733472295105,0.0006751813343726099,0.0006997892633080482,0.0007243972504511476,0.000749005179386586,0.0007736131665296853,0.0007982210954651237,0.000822829082608223,0.0008474370115436614,0.0008720449986867607],"_type":"histogram","values":[3,0,1,0,3,2,1,4,7,6,3,4,11,10,11,19,42,39,43,62,90,112,167,255,383,691,1205,2453,7029,2709,1171,576,383,266,148,119,70,62,48,34,30,29,19,15,13,15,9,10,9,9,8,3,2,5,2,0,2,1,3,1,2,1,0,2]},"_runtime":9440.52376,"Weights/down4.maxpool_conv.1.double_conv.0.weight":{"bins":[-0.14067645370960236,-0.13633133471012115,-0.13198621571063995,-0.12764108180999756,-0.12329596281051636,-0.11895084381103516,-0.11460571736097336,-0.11026059836149216,-0.10591547191143036,-0.10157035291194916,-0.09722522646188736,-0.09288010746240616,-0.08853498101234436,-0.08418986201286316,-0.07984473556280136,-0.07549961656332016,-0.07115449011325836,-0.06680937111377716,-0.06246424838900566,-0.05811912566423416,-0.05377400293946266,-0.04942888021469116,-0.04508375748991966,-0.04073863476514816,-0.03639351576566696,-0.03204839304089546,-0.027703268453478813,-0.023358145728707314,-0.019013024866580963,-0.014667901210486889,-0.010322779417037964,-0.005977656692266464,-0.0016325339674949646,0.0027125885244458914,0.007057711016386747,0.01140283327549696,0.015747956931591034,0.020093077793717384,0.024438200518488884,0.028783323243260384,0.03312844783067703,0.037473566830158234,0.04181868955492973,0.04616381227970123,0.05050893500447273,0.05485405772924423,0.05919918045401573,0.06354430317878723,0.06788942217826843,0.07223454862833023,0.07657966762781143,0.08092479407787323,0.08526991307735443,0.08961503952741623,0.09396015852689743,0.09830528497695923,0.10265040397644043,0.10699553042650223,0.11134064942598343,0.11568577587604523,0.12003089487552643,0.12437602132558823,0.12872114777565002,0.13306626677513123,0.13741138577461243],"_type":"histogram","values":[1,0,0,0,0,0,0,1,2,3,5,8,6,18,27,52,76,121,173,290,482,717,1272,2089,3378,6019,23219,43980,53730,58988,59297,59813,59724,58354,56220,51070,26152,12853,4880,2147,1402,944,662,461,312,226,181,126,94,75,43,35,31,16,14,3,8,4,4,3,6,1,4,2]},"Weights/down2.maxpool_conv.1.double_conv.0.weight":{"_type":"histogram","values":[2,1,1,4,2,0,6,3,9,7,10,21,30,26,49,76,94,124,175,215,253,374,448,566,728,928,1121,1480,1761,1999,2623,3154,4133,6181,7237,7156,7146,6472,4678,3096,2592,2137,1765,1369,994,744,550,382,263,194,129,68,60,23,27,15,13,7,1,1,1,2,1,1],"bins":[-0.5776082277297974,-0.5617340207099915,-0.5458597540855408,-0.5299855470657349,-0.514111340045929,-0.49823707342147827,-0.48236286640167236,-0.46648862957954407,-0.45061439275741577,-0.43474018573760986,-0.41886594891548157,-0.40299171209335327,-0.38711750507354736,-0.37124326825141907,-0.35536903142929077,-0.3394947946071625,-0.32362058758735657,-0.30774635076522827,-0.2918721139431,-0.27599790692329407,-0.26012367010116577,-0.24424943327903748,-0.22837521135807037,-0.21250098943710327,-0.19662675261497498,-0.18075253069400787,-0.16487829387187958,-0.14900407195091248,-0.13312985002994537,-0.11725561320781708,-0.10138139128684998,-0.08550716191530228,-0.06963293254375458,-0.05375870317220688,-0.03788447752594948,-0.02201024815440178,-0.006136020645499229,0.00973820686340332,0.02561243623495102,0.04148666188120842,0.05736089125275612,0.07323511689901352,0.08910934627056122,0.10498357564210892,0.12085780501365662,0.13673202693462372,0.15260626375675201,0.16848048567771912,0.1843547224998474,0.20022894442081451,0.21610316634178162,0.2319774031639099,0.24785162508487701,0.2637258470058441,0.2796000838279724,0.2954743206501007,0.3113485276699066,0.3272227644920349,0.3430970013141632,0.3589712083339691,0.3748454451560974,0.3907196819782257,0.406593918800354,0.4224681258201599,0.4383423626422882]},"step":5550,"Weights/up2.conv.double_conv.3.weight":{"_type":"histogram","values":[1,0,0,0,0,1,0,0,0,1,4,1,6,5,7,10,22,38,50,70,107,128,198,286,375,560,738,945,1264,1617,2021,2535,3067,3705,4217,4600,5214,5986,6209,6135,5068,4224,3562,2876,2256,1693,1195,893,652,393,257,199,124,79,49,39,21,12,3,3,1,3,1,2],"bins":[-0.6946106553077698,-0.6766842007637024,-0.658757746219635,-0.6408312916755676,-0.6229047775268555,-0.6049783229827881,-0.5870518684387207,-0.5691254138946533,-0.5511989593505859,-0.5332725048065186,-0.5153459906578064,-0.4974195659160614,-0.47949308156967163,-0.46156662702560425,-0.44364017248153687,-0.4257136881351471,-0.4077872335910797,-0.38986077904701233,-0.37193429470062256,-0.3540078401565552,-0.3360813856124878,-0.318154901266098,-0.30022844672203064,-0.28230199217796326,-0.2643755078315735,-0.2464490532875061,-0.22852259874343872,-0.21059612929821014,-0.19266965985298157,-0.17474320530891418,-0.1568167358636856,-0.13889028131961823,-0.12096381187438965,-0.10303734987974167,-0.08511088788509369,-0.06718441843986511,-0.04925795644521713,-0.03133149445056915,-0.013405028730630875,0.004521435126662254,0.022447898983955383,0.04037436097860336,0.05830082669854164,0.07622729241847992,0.0941537544131279,0.11208021640777588,0.13000668585300446,0.14793314039707184,0.16585960984230042,0.183786079287529,0.20171253383159637,0.21963900327682495,0.23756545782089233,0.2554919421672821,0.2734183967113495,0.29134485125541687,0.30927133560180664,0.327197790145874,0.3451242446899414,0.3630506992340088,0.38097718358039856,0.39890363812446594,0.4168300926685333,0.4347565770149231,0.4526830315589905]},"Gradients/up2.conv.double_conv.0.weight":{"_type":"histogram","values":[2,0,1,0,0,0,1,3,0,1,1,1,3,5,6,8,18,16,30,45,58,76,109,174,268,492,766,1352,2841,6299,27917,239455,7788,3189,1561,888,500,324,216,141,96,58,47,38,26,21,17,7,9,8,3,4,5,2,2,4,1,4,0,2,1,1,0,1],"bins":[-0.0008625098853372037,-0.0008347623515874147,-0.0008070148760452867,-0.0007792673422954977,-0.0007515198667533696,-0.0007237723330035806,-0.0006960248574614525,-0.0006682773237116635,-0.0006405298481695354,-0.0006127823144197464,-0.0005850348388776183,-0.0005572873051278293,-0.0005295398295857012,-0.0005017922958359122,-0.0004740447911899537,-0.00044629728654399514,-0.0004185497818980366,-0.00039080227725207806,-0.0003630547726061195,-0.00033530726796016097,-0.00030755976331420243,-0.0002798122586682439,-0.00025206475402228534,-0.00022431723482441157,-0.00019656973017845303,-0.00016882222553249449,-0.00014107472088653594,-0.00011332720896461979,-8.557970431866124e-05,-5.78321996727027e-05,-3.008469138876535e-05,-2.3371849238174036e-06,2.5410321541130543e-05,5.3157826187089086e-05,8.090533083304763e-05,0.00010865284275496379,0.00013640034012496471,0.00016414785932283849,0.00019189536396879703,0.00021964286861475557,0.0002473903587087989,0.0002751378924585879,0.00030288539710454643,0.00033063290175050497,0.0003583804063964635,0.00038612791104242206,0.0004138754156883806,0.00044162292033433914,0.0004693704249802977,0.0004971179296262562,0.0005248654633760452,0.0005526129389181733,0.0005803604726679623,0.0006081079482100904,0.0006358554819598794,0.0006636029575020075,0.0006913504912517965,0.0007190979667939246,0.0007468455005437136,0.0007745929760858417,0.0008023405098356307,0.0008300879853777587,0.0008578355191275477,0.0008855829946696758,0.0009133305284194648]},"Weights/outc.conv.bias":{"_type":"histogram","values":[0,0,0,0,0,0,0,0,0,0,0,0,0,0,0,0,0,0,0,0,0,0,0,0,0,0,0,0,0,0,0,0,1,0,0,0,0,0,0,0,0,0,0,0,0,0,0,0,0,0,0,0,0,0,0,0,0,0,0,0,0,0,0,0],"bins":[-0.3514719009399414,-0.3358469009399414,-0.3202219009399414,-0.3045969009399414,-0.2889719009399414,-0.2733469009399414,-0.2577219009399414,-0.2420969158411026,-0.2264719158411026,-0.2108469158411026,-0.1952219158411026,-0.1795969158411026,-0.1639719158411026,-0.1483469158411026,-0.1327219158411026,-0.1170969158411026,-0.1014719158411026,-0.0858469158411026,-0.0702219158411026,-0.0545969158411026,-0.0389719158411026,-0.0233469158411026,-0.0077219158411026,0.0079030841588974,0.0235280841588974,0.0391530841588974,0.0547780841588974,0.0704030841588974,0.0860280841588974,0.1016530841588974,0.1172780841588974,0.1329030841588974,0.1485280841588974,0.1641530841588974,0.1797780841588974,0.1954030841588974,0.2110280841588974,0.2266530841588974,0.2422780841588974,0.2579030990600586,0.2735280990600586,0.2891530990600586,0.3047780990600586,0.3204030990600586,0.3360280990600586,0.3516530990600586,0.3672780990600586,0.3829030990600586,0.3985280990600586,0.4141530990600586,0.4297780990600586,0.4454030990600586,0.4610280990600586,0.4766530990600586,0.4922780990600586,0.5079030990600586,0.5235280990600586,0.5391530990600586,0.5547780990600586,0.5704030990600586,0.5860280990600586,0.6016530990600586,0.6172780990600586,0.6329030990600586,0.6485280990600586]},"Weights/inc.double_conv.0.weight":{"values":[5,7,22,21,19,23,16,17,23,31,25,40,30,36,44,32,31,37,41,58,74,60,89,100,101,130,141,147,136,151,178,576,1284,1581,1368,640,221,145,146,154,161,142,124,98,90,86,66,82,53,43,24,32,22,30,29,26,31,37,20,16,8,5,4,7],"bins":[-1.2749170064926147,-1.2372515201568604,-1.199586033821106,-1.1619205474853516,-1.1242549419403076,-1.0865894556045532,-1.0489239692687988,-1.0112584829330444,-0.97359299659729,-0.9359274506568909,-0.8982619643211365,-0.8605964779853821,-0.8229309320449829,-0.7852654457092285,-0.7475999593734741,-0.709934413433075,-0.6722689270973206,-0.6346034407615662,-0.596937894821167,-0.5592724084854126,-0.5216069221496582,-0.4839414060115814,-0.44627588987350464,-0.40861040353775024,-0.37094488739967346,-0.3332793712615967,-0.2956138849258423,-0.2579483687877655,-0.22028286755084991,-0.18261736631393433,-0.14495185017585754,-0.10728634893894196,-0.06962084770202637,-0.03195534273982048,0.0057101622223854065,0.04337566718459129,0.08104117214679718,0.11870667338371277,0.15637218952178955,0.19403769075870514,0.23170319199562073,0.2693687081336975,0.3070341944694519,0.3446997106075287,0.38236522674560547,0.42003071308135986,0.45769622921943665,0.49536171555519104,0.5330272316932678,0.5706927180290222,0.6083582639694214,0.6460237503051758,0.6836892366409302,0.7213547825813293,0.7590202689170837,0.7966857552528381,0.8343513011932373,0.8720167875289917,0.9096822738647461,0.9473477602005005,0.9850133061408997,1.0226788520812988,1.0603443384170532,1.0980098247528076,1.135675311088562],"_type":"histogram"},"train BCE loss":0.01904824157119603,"Gradients/up4.conv.double_conv.0.weight":{"values":[3,0,4,2,0,0,0,0,0,1,6,6,16,11,18,30,34,44,49,105,273,753,4306,12357,223,70,23,20,12,6,5,9,7,2,2,1,2,2,9,5,3,2,2,0,0,0,0,0,0,0,0,0,2,0,0,0,1,2,1,0,0,1,1,1],"bins":[-0.0042156134732067585,-0.004033965989947319,-0.003852318273857236,-0.003670670557767153,-0.0034890230745077133,-0.003307375591248274,-0.0031257278751581907,-0.0029440801590681076,-0.002762432675808668,-0.0025807851925492287,-0.0023991374764591455,-0.0022174897603690624,-0.002035842277109623,-0.0018541946774348617,-0.0016725470777601004,-0.001490899478085339,-0.0013092518784105778,-0.0011276042787358165,-0.0009459566790610552,-0.0007643090793862939,-0.0005826614797115326,-0.0004010138800367713,-0.00021936628036201,-3.771868068724871e-05,0.0001439289189875126,0.0003255765186622739,0.0005072241183370352,0.0006888717180117965,0.0008705193176865578,0.001052166917361319,0.0012338145170360804,0.0014154621167108417,0.001597109716385603,0.0017787573160603642,0.0019604049157351255,0.0021420526318252087,0.002323700115084648,0.0025053475983440876,0.0026869953144341707,0.002868643030524254,0.0030502905137836933,0.0032319379970431328,0.003413585713133216,0.003595233429223299,0.0037768809124827385,0.003958528395742178,0.004140175879001617,0.004321823827922344,0.004503471311181784,0.004685118794441223,0.00486676674336195,0.005048414226621389,0.005230061709880829,0.005411709193140268,0.005593356676399708,0.005775004625320435,0.005956652108579874,0.0061382995918393135,0.00631994754076004,0.00650159502401948,0.006683242507278919,0.006864889990538359,0.007046537473797798,0.007228185422718525,0.007409832905977964],"_type":"histogram"},"Weights/down2.maxpool_conv.1.double_conv.3.weight":{"values":[1,0,0,1,1,2,2,1,2,7,5,12,19,29,52,69,80,133,175,254,347,500,637,877,1095,1417,1831,2322,2896,3508,4204,4992,6147,7625,12256,20969,21747,19918,10005,5847,4516,3477,2716,1979,1475,1099,686,501,366,248,143,90,71,35,23,14,9,8,8,1,3,1,1,1],"bins":[-0.6421664953231812,-0.6246492266654968,-0.6071320176124573,-0.589614748954773,-0.5720975399017334,-0.5545802712440491,-0.5370630025863647,-0.5195457935333252,-0.5020285248756409,-0.48451128602027893,-0.466994047164917,-0.44947680830955505,-0.4319595694541931,-0.4144423305988312,-0.39692506194114685,-0.3794078230857849,-0.361890584230423,-0.34437334537506104,-0.3268561065196991,-0.30933883786201477,-0.29182159900665283,-0.2743043601512909,-0.25678712129592896,-0.23926986753940582,-0.22175262868404388,-0.20423538982868195,-0.1867181360721588,-0.16920089721679688,-0.15168365836143494,-0.1341664046049118,-0.11664916574954987,-0.09913191944360733,-0.0816146731376648,-0.06409742683172226,-0.04658018425107002,-0.029062939807772636,-0.01154569536447525,0.005971549078822136,0.023488793522119522,0.04100603610277176,0.058523282408714294,0.07604052871465683,0.09355777502059937,0.1110750138759613,0.12859225273132324,0.14610950648784637,0.1636267453432083,0.18114399909973145,0.19866123795509338,0.21617847681045532,0.23369573056697845,0.2512129843235016,0.2687302231788635,0.28624746203422546,0.3037647008895874,0.32128193974494934,0.3387991786003113,0.3563164472579956,0.37383368611335754,0.3913509249687195,0.4088681638240814,0.42638540267944336,0.4439026713371277,0.4614199101924896,0.47893714904785156],"_type":"histogram"},"Gradients/outc.conv.weight":{"_type":"histogram","values":[5,5,2,2,3,1,1,1,0,1,1,0,1,0,1,0,0,0,0,0,0,0,0,0,0,1,2,0,0,0,0,0,0,0,0,0,0,0,0,0,1,0,0,0,0,2,0,0,1,0,0,0,0,0,0,0,0,0,0,0,0,0,0,1],"bins":[-0.000148721897858195,9.872479131445289e-05,0.00034617146593518555,0.0005936181405559182,0.0008410648442804813,0.0010885115480050445,0.0013359582517296076,0.0015834049554541707,0.0018308516591787338,0.002078298246487975,0.00232574506662786,0.0025731916539371014,0.0028206384740769863,0.0030680850613862276,0.003315531648695469,0.003562978468835354,0.003810425056144595,0.0040578716434538364,0.004305318463593721,0.004552765283733606,0.004800211638212204,0.005047658458352089,0.005295105278491974,0.005542552098631859,0.0057899984531104565,0.006037445273250341,0.006284892093390226,0.006532338447868824,0.006779785268008709,0.007027232088148594,0.007274678908288479,0.0075221252627670765,0.0077695720829069614,0.008017018437385559,0.008264465257525444,0.008511912077665329,0.008759358897805214,0.009006805717945099,0.009254252538084984,0.009501699358224869,0.009749145247042179,0.009996592067182064,0.010244038887321949,0.010491485707461834,0.010738932527601719,0.010986379347741604,0.011233826167881489,0.0114812720566988,0.011728718876838684,0.011976165696978569,0.012223612517118454,0.012471059337258339,0.012718506157398224,0.012965952977538109,0.01321339886635542,0.013460845686495304,0.013708292506635189,0.013955739326775074,0.014203186146914959,0.014450632967054844,0.014698079787194729,0.01494552567601204,0.015192972496151924,0.015440419316291809,0.015687866136431694]},"optimizer":"adam","Gradients/down3.maxpool_conv.1.double_conv.3.weight":{"_type":"histogram","values":[0,0,0,0,0,0,0,0,0,0,0,0,0,0,0,0,0,0,0,0,0,0,0,0,0,0,0,0,0,0,0,0,589824,0,0,0,0,0,0,0,0,0,0,0,0,0,0,0,0,0,0,0,0,0,0,0,0,0,0,0,0,0,0,0],"bins":[-0.5,-0.484375,-0.46875,-0.453125,-0.4375,-0.421875,-0.40625,-0.390625,-0.375,-0.359375,-0.34375,-0.328125,-0.3125,-0.296875,-0.28125,-0.265625,-0.25,-0.234375,-0.21875,-0.203125,-0.1875,-0.171875,-0.15625,-0.140625,-0.125,-0.109375,-0.09375,-0.078125,-0.0625,-0.046875,-0.03125,-0.015625,0,0.015625,0.03125,0.046875,0.0625,0.078125,0.09375,0.109375,0.125,0.140625,0.15625,0.171875,0.1875,0.203125,0.21875,0.234375,0.25,0.265625,0.28125,0.296875,0.3125,0.328125,0.34375,0.359375,0.375,0.390625,0.40625,0.421875,0.4375,0.453125,0.46875,0.484375,0.5]},"Gradients/down2.maxpool_conv.1.double_conv.3.weight":{"_type":"histogram","values":[1,1,1,0,1,0,1,0,1,2,0,0,1,1,0,0,0,1,0,0,1,0,1,2,1,1,2,2,1,2,6,7,8,13,24,31,47,64,134,250,571,1335,4040,110964,23670,3737,1280,567,296,136,95,57,37,24,8,5,9,5,5,2,2,1,1,1],"bins":[-0.002622022293508053,-0.002562366658821702,-0.0025027107913047075,-0.0024430551566183567,-0.002383399521932006,-0.0023237436544150114,-0.0022640880197286606,-0.0022044323850423098,-0.0021447765175253153,-0.0020851208828389645,-0.0020254652481526136,-0.001965809380635619,-0.0019061537459492683,-0.0018464979948475957,-0.0017868423601612449,-0.0017271866090595722,-0.0016675309743732214,-0.0016078752232715487,-0.001548219472169876,-0.0014885638374835253,-0.0014289080863818526,-0.00136925233528018,-0.0013095967005938292,-0.0012499409494921565,-0.0011902851983904839,-0.001130629563704133,-0.0010709738126024604,-0.0010113180615007877,-0.000951662368606776,-0.0008920066757127643,-0.0008323509828187525,-0.0007726952317170799,-0.0007130395388230681,-0.0006533838459290564,-0.0005937280948273838,-0.000534072401933372,-0.0004744167090393603,-0.0004147609870415181,-0.0003551052650436759,-0.00029544957214966416,-0.00023579385015182197,-0.000176138142705895,-0.00011648242798401043,-5.682671690010466e-05,2.8289941838011146e-06,6.248470162972808e-05,0.00012214042362757027,0.00018179613107349724,0.0002414518385194242,0.0003011075605172664,0.00036076325341127813,0.0004204189754091203,0.00048007466830313206,0.0005397304194048047,0.0005993861122988164,0.0006590418051928282,0.0007186975562945008,0.0007783532491885126,0.0008380089420825243,0.000897664634976536,0.0009573203860782087,0.0010169760789722204,0.001076631830073893,0.001136287464760244,0.0011959432158619165]},"Weights/up1.conv.double_conv.0.weight":{"_type":"histogram","values":[1,0,0,0,2,1,2,3,4,7,13,11,15,37,52,77,138,179,338,533,916,1648,2667,4868,10054,26313,168797,231432,254026,247758,154703,51158,10849,4897,2901,1852,1175,717,497,333,210,143,106,70,46,30,22,8,9,5,5,4,4,3,1,0,1,3,2,0,0,0,0,2],"bins":[-0.19533048570156097,-0.18859949707984924,-0.1818685233592987,-0.17513753473758698,-0.16840654611587524,-0.1616755574941635,-0.15494458377361298,-0.14821359515190125,-0.14148260653018951,-0.13475163280963898,-0.12802064418792725,-0.12128966301679611,-0.11455867439508438,-0.10782769322395325,-0.10109670460224152,-0.09436572343111038,-0.08763474225997925,-0.08090375363826752,-0.07417277246713638,-0.06744178384542465,-0.06071080267429352,-0.053979817777872086,-0.04724883288145065,-0.04051784798502922,-0.03378686308860779,-0.027055880054831505,-0.02032489702105522,-0.013593912124633789,-0.006862928159534931,-0.00013194396160542965,0.006599040236324072,0.013330024667084217,0.020061008632183075,0.026791993528604507,0.03352297842502594,0.040253959596157074,0.046984944492578506,0.05371592938899994,0.06044691428542137,0.0671778991818428,0.07390888035297394,0.08063986897468567,0.0873708501458168,0.09410183131694794,0.10083281993865967,0.1075638011097908,0.11429478973150253,0.12102577090263367,0.1277567595243454,0.13448773324489594,0.14121872186660767,0.1479497104883194,0.15468069911003113,0.16141167283058167,0.1681426614522934,0.17487365007400513,0.18160462379455566,0.1883356124162674,0.19506660103797913,0.20179757475852966,0.2085285633802414,0.21525955200195312,0.22199054062366486,0.2287215143442154,0.23545250296592712]},"_wandb":{"runtime":9440},"train Recall":0.9873305936877201,"Gradients/up4.conv.double_conv.3.weight":{"bins":[-0.001965089701116085,-0.001904149423353374,-0.0018432090291753411,-0.00178226875141263,-0.0017213283572345972,-0.0016603880794718862,-0.0015994476852938533,-0.0015385074075311422,-0.0014775671297684312,-0.0014166267355903983,-0.0013556864578276873,-0.0012947460636496544,-0.0012338057858869433,-0.0011728655081242323,-0.0011119251139461994,-0.0010509848361834884,-0.0009900444420054555,-0.0009291041642427444,-0.0008681638282723725,-0.0008072234923020005,-0.0007462831563316286,-0.0006853428203612566,-0.0006244024843908846,-0.0005634622066281736,-0.0005025218706578016,-0.00044158153468742967,-0.0003806411987170577,-0.00031970086274668574,-0.00025876055588014424,-0.00019782021990977228,-0.00013687989849131554,-7.59395697969012e-05,-1.4999241102486849e-05,4.59410875919275e-05,0.00010688141628634185,0.00016782173770479858,0.00022876207367517054,0.00028970238054171205,0.000350642716512084,0.00041158305248245597,0.00047252338845282793,0.0005334637244231999,0.0005944040021859109,0.0006553443381562829,0.0007162846741266549,0.0007772250100970268,0.0008381653460673988,0.0008991056820377707,0.0009600459598004818,0.0010209863539785147,0.0010819266317412257,0.0011428670259192586,0.0012038073036819696,0.0012647475814446807,0.0013256879756227136,0.0013866282533854246,0.0014475686475634575,0.0015085089253261685,0.0015694492030888796,0.0016303895972669125,0.0016913298750296235,0.0017522702692076564,0.0018132105469703674,0.0018741509411484003,0.0019350912189111114],"_type":"histogram","values":[1,0,0,0,0,1,0,1,2,3,6,1,7,4,6,10,8,15,18,26,29,33,40,51,65,58,77,86,118,215,513,1828,5202,473,138,48,33,24,14,9,16,12,5,4,3,0,2,3,3,0,2,0,1,0,0,0,0,0,0,1,0,0,0,1]}}